20 100
the -0.38627607 -0.15012719 -0.08733808 0.00503509 -0.04208450 0.03892713 -0.11473239 -0.08472840 -0.29926920 -0.02077758 0.12493061 -0.04481914 0.33196011 -0.13735111 -0.02812574 -0.00390091 0.11174349 0.09505948 -0.16887385 0.00228367 0.32087025 0.09782869 -0.10737338 -0.06129395 0.18249908 -0.05100072 0.21253984 0.02489707 0.02175385 -0.39170724 -0.29183784 -0.22529094 0.03830472 -0.15434472 -0.01628376 -0.00923965 0.02930920 -0.08820941 0.07592522 -0.15405428 -0.04144111 0.13566771 -0.37981254 -0.38213757 -0.25588363 -0.49647608 -0.11449744 0.03909553 -0.15526824 -0.01664695 -0.00767829 -0.05582739 0.13621603 0.07858334 0.29551968 0.10179809 0.03109804 -0.26382577 -0.03128480 0.10827392 -0.24448185 -0.01538206 0.28079438 -0.12966591 0.21328409 0.29846540 -0.04870274 0.15992795 -0.40541369 0.37449077 0.38550711 -0.37281582 -0.16959547 -0.11095594 0.14350249 0.09551350 0.08266280 -0.21282768 -0.36655685 -0.14342017 0.48606521 -0.20174681 -0.09681304 -0.19885547 0.28714445 0.19999182 0.13204651 0.26776740 -0.11308714 0.14157061 0.41388604 0.00483447 -0.06636059 -0.12737693 0.00296968 0.40395522 -0.09767442 -0.02400193 0.28026217 0.09128595
of -0.23664343 -0.15332590 -0.19540393 -0.11209455 -0.23206560 -0.07679231 -0.08542711 0.05730594 -0.39561772 0.06386157 0.16260554 -0.17225353 0.46809152 -0.13014469 -0.10788501 -0.08532703 0.03385174 0.08630791 -0.22758439 0.00841082 0.02252904 -0.18554714 -0.15236159 0.05386812 0.17515585 -0.02705256 0.30700669 0.03367519 -0.12425011 -0.69144160 -0.34222496 -0.39131510 0.00142972 -0.23428066 -0.01546829 -0.02083264 0.01915072 -0.02196901 -0.04808472 -0.20785345 -0.09609609 0.39884329 -0.45829028 -0.37461737 -0.29514840 -0.57165831 -0.26878718 0.02802253 -0.16237654 -0.22231421 0.09036402 -0.21969903 0.17727828 0.12723428 0.19482130 0.20307264 -0.04026588 -0.22211099 -0.22899562 0.04515082 -0.36897811 -0.00453031 0.34381571 0.11142894 0.14077628 0.29517746 -0.04386465 -0.02303438 -0.48681203 0.27230644 0.10481882 -0.19054230 -0.39104384 -0.26289353 -0.00910355 0.15218906 -0.07006648 -0.15680528 -0.27828693 -0.01387612 0.48096699 -0.14746325 -0.15401487 -0.26442185 0.17909789 0.11946895 0.17912732 0.38524464 -0.08773080 0.16412845 0.35465395 0.10914925 -0.10441248 -0.29413077 -0.15974142 0.34464991 -0.13719602 -0.23803449 0.24449770 0.03931900
in -0.44459665 -0.18408448 -0.05935402 0.01901616 -0.27044055 -0.03967379 -0.17018978 -0.13142622 -0.36288336 0.05956855 0.14661418 0.11155163 0.40961853 -0.30624354 -0.16351792 0.00461440 0.40839422 -0.05938619 -0.19711553 -0.12605701 0.14086573 0.00296122 -0.27408797 0.14556499 0.24611339 -0.04199661 0.25815094 -0.05073384 -0.07243738 -0.46521127 -0.18797792 -0.25109726 0.05982740 -0.25212765 0.04001421 0.04944679 0.19726802 0.04704633 0.01131802 -0.20230804 0.08065026 0.22701241 -0.49138689 -0.24225959 0.03971650 -0.33982247 -0.12893093 -0.05553517 -0.03393405 0.06233465 -0.06532592 -0.03446188 0.41375554 0.17420581 0.31339025 -0.00478778 0.26713178 -0.02225742 -0.02500211 0.30876392 -0.10734814 -0.26196802 0.15273546 -0.22448976 0.22015382 0.14405708 -0.18660858 0.12062024 -0.17626213 0.24468844 0.27424413 -0.48291579 0.07942463 0.13108438 -0.02932383 -0.00754710 0.00418901 -0.04138318 -0.16878441 -0.02541565 0.29361743 -0.23041315 -0.26616737 -0.05843100 0.32898107 0.13546957 0.16925216 0.46010256 -0.04321267 0.26399130 0.25652206 -0.16920067 -0.17786296 -0.19339749 -0.02569209 0.45609426 -0.21370786 -0.34204727 0.25252756 -0.15064143
and -0.28604186 -0.12609188 0.01593710 -0.12144991 -0.01017697 0.02969498 -0.05145980 0.10649715 -0.32260555 0.18269143 0.28060567 -0.07428486 0.27423355 -0.16715519 0.10994858 0.02275045 0.20112832 0.09218758 -0.28526932 -0.23322837 -0.00086134 0.01643648 -0.01812951 0.21987195 0.17482021 -0.29295203 0.13960205 -0.02599450 -0.01083031 -0.29769981 -0.03842651 -0.08649518 0.18725380 -0.08127464 0.13973899 0.02469209 0.25480315 0.00994791 -0.01452186 -0.16865151 -0.13264208 0.18033764 -0.37417895 -0.40065384 -0.11602306 -0.62024379 -0.14879811 -0.23571052 -0.05889514 0.04531322 0.05878988 0.00363649 0.35929582 0.23035668 0.16972394 0.10782932 0.11902324 -0.24049778 -0.05121743 0.03877786 -0.16772452 -0.13743258 0.22195005 -0.04607819 0.31763443 0.21502316 -0.24118276 -0.00540716 -0.18851762 0.08741574 0.09179129 -0.28364486 -0.02088401 0.09835476 -0.12760670 -0.01116343 0.03879546 -0.13503446 -0.39498949 -0.05627610 0.32128525 -0.09305052 -0.18205069 -0.09851860 0.13790181 -0.00044442 0.02619091 0.23213691 0.02554877 0.00037288 0.29889959 0.02737271 0.11361171 -0.36773887 -0.22799200 0.18149245 -0.01644742 -0.29215115 0.25590369 -0.03126280
a -0.17016174 0.22213662 0.04498867 0.13424581 -0.32772210 0.17851666 -0.12526245 0.13432509 -0.34269962 0.09759326 0.36220685 -0.13722064 0.50877362 -0.23379132 -0.01965716 0.12009162 0.02163734 0.02213853 -0.18142834 0.17994650 0.45914555 -0.11421326 0.23677193 0.08453992 0.07960892 0.04711244 0.16684301 -0.29012439 0.10717861 -0.42962542 -0.25647068 0.05510912 0.19106993 -0.20663640 0.08987449 0.03049986 0.12195949 -0.10217085 0.12899908 -0.11021121 -0.04452750 0.11044732 -0.50518608 -0.30211052 -0.29240635 -0.33214745 -0.04063966 -0.14174813 0.05693936 -0.01178378 -0.07333405 0.01312873 0.04342303 -0.15497813 0.29995683 0.10609774 0.25321496 -0.17089301 0.05318321 0.27679881 0.00237637 -0.13055907 0.40383354 -0.23698658 0.22380579 -0.09532569 -0.11255088 0.02840059 -0.46128634 0.23751444 0.23056196 -0.52420986 -0.04897442 -0.03756938 0.00142805 0.26138309 0.00708514 -0.42461467 -0.09011184 -0.09262186 0.28391197 -0.08694131 -0.15787610 -0.07803232 0.07641032 0.42239600 0.20266560 0.18983983 -0.02681390 0.17026366 0.18077803 0.07620718 0.12059372 0.12150961 -0.36378369 0.35901141 -0.18662366 -0.30616480 0.35379246 0.30380645
to -0.27165022 -0.23511997 -0.14336562 -0.20470335 0.14129218 0.00671546 -0.13654415 0.05968737 -0.32913867 0.05821547 0.31274760 -0.40430251 0.23008622 -0.10176705 0.13061975 0.13200097 0.15160747 0.13928294 -0.23330115 -0.02936280 0.07134362 0.20259631 0.04638330 -0.04198841 0.02063903 -0.17798764 0.23708771 -0.11315390 -0.20999171 -0.04218124 -0.23464751 0.14852139 0.24199471 -0.28488469 0.13976091 0.02921727 -0.06193699 0.02870372 -0.09358072 -0.04552395 -0.14076684 0.17680945 -0.19920190 -0.55588347 -0.03720853 -0.69297308 -0.30923539 -0.03725412 -0.25035232 -0.00854908 -0.00240031 0.13793932 0.54742080 0.05119809 0.14212270 0.07863116 0.47934788 -0.09144448 0.16323297 0.10259542 -0.13820508 -0.05760493 0.26634419 -0.20439471 0.20975541 0.02458057 -0.10305848 0.48850566 -0.06574833 0.07793140 0.23183727 -0.43244618 0.00059361 -0.39784992 0.11256448 0.01774178 -0.28123209 -0.36546645 -0.44181359 -0.17846264 0.34347284 -0.22065006 -0.26842344 -0.00619200 0.63653457 0.32537952 -0.12694037 0.30095506 0.18314026 0.17007771 0.27549484 0.05549512 -0.03764991 0.14799672 0.04458345 0.10309564 -0.05284193 -0.46927279 0.18813951 -0.01332288
was -0.09312337 -0.11855683 0.26268953 -0.09946046 -0.23779708 0.26843572 -0.34914076 -0.14595108 -0.40918505 0.21904612 0.10695995 -0.07809106 0.41466537 -0.09399028 -0.09619398 0.23300163 0.25854316 0.02673133 0.13842376 0.13093841 0.18691622 0.02720775 0.09522086 -0.21389908 0.00794544 -0.33693948 0.21368578 -0.64644986 0.13779166 -0.14433573 -0.17161755 -0.22886899 -0.14288969 -0.36320302 -0.10425680 0.00532700 -0.05982171 0.19679469 -0.00610581 -0.13547571 -0.00756880 -0.01062523 -0.30135468 -0.35836762 -0.02582609 -0.69023198 -0.06130613 -0.10522415 -0.03745172 -0.31541058 -0.20007324 0.01902299 0.13101031 0.14139788 0.33940226 0.22074823 0.14071366 -0.11724556 -0.03521068 0.11404192 0.18885462 -0.23963164 0.12959912 -0.25804335 0.36124447 0.03848992 -0.30033511 0.29329163 -0.02409420 0.42312798 0.46012062 -0.40004933 -0.05922074 0.24519315 0.25123772 0.11020343 0.14173263 -0.29814735 -0.21024439 -0.42218849 0.10788951 -0.20423514 -0.23474887 0.01354651 0.31825823 0.10555989 0.11926485 0.28022647 -0.13790168 0.00590035 0.23924957 0.05014912 -0.05503009 -0.03885314 -0.00342041 0.48200688 -0.11584267 -0.16713032 0.30093983 0.43309328
is -0.03896450 0.11662706 -0.14520703 0.10501843 -0.41610095 0.34997353 -0.12716013 0.45068270 -0.46605912 0.02848380 0.34519386 -0.19790672 0.60008204 -0.34134811 -0.19631477 0.33191645 0.23136196 -0.09002492 -0.13658844 0.02399483 -0.09629833 -0.09760835 0.07614131 0.17937994 -0.21262237 -0.27348462 0.54963315 -0.13463005 -0.14669684 -0.36371332 -0.35165685 -0.25778475 0.00186511 -0.18465281 -0.10944802 -0.00726161 -0.02062277 -0.15532875 0.24979798 -0.19022851 0.04030304 0.05082497 -0.27514827 -0.58789140 0.08505782 -0.47826126 -0.03353539 -0.07432579 0.13781418 -0.06820407 -0.17725386 0.19852056 0.09040353 -0.00526111 0.15768051 0.10825757 0.10126305 -0.50923163 0.16861099 0.24824478 0.18434446 -0.03482804 0.25306663 -0.03793763 0.23912312 0.15955746 -0.27833992 -0.17624092 -0.25192186 0.14061016 0.47389925 -0.43217885 0.01416116 0.01337052 0.28175709 0.05673092 0.10404164 -0.20877323 -0.05445831 -0.23995443 0.18154140 -0.14521766 -0.10249399 -0.21634273 0.17828792 0.43794689 0.36520410 0.01591025 -0.21052238 0.15523642 0.12495243 0.07042891 0.07713459 0.10766301 -0.31266892 0.58721268 0.01764006 -0.11065898 0.10352609 0.26065245
for -0.44561520 -0.02456724 0.12151691 -0.18316907 -0.14084078 -0.02141074 -0.34082404 0.10747550 -0.24453318 0.25985914 0.36742306 -0.02575214 0.54003674 -0.09460234 -0.03695999 0.27229458 0.31986403 0.21474245 -0.25048164 -0.31909367 0.21280767 -0.17409080 0.10180020 -0.15964918 0.04281596 -0.32019630 0.00950909 -0.19758949 -0.17755674 -0.37296686 -0.18758290 -0.16166548 0.31880540 -0.28915721 0.15641905 0.06033859 0.19494566 0.16789281 -0.05767000 -0.49633357 0.02233497 0.06181751 -0.33188078 -0.37976629 -0.22771798 -0.39406189 -0.33391804 0.17443673 -0.10560738 0.06119764 0.12000807 -0.08846285 0.13772944 0.12833786 -0.03374821 0.07190387 -0.16215624 -0.16107060 0.02637481 0.12431763 -0.21891485 -0.19094719 0.20872124 -0.22449416 0.34807819 0.29176551 -0.15004864 0.33009687 -0.16582642 0.34651297 -0.04761131 -0.34951478 0.01333889 -0.01307641 0.21710823 0.11725741 0.09378295 -0.17239504 -0.47500247 0.28785050 0.30339471 -0.02792426 -0.09571717 -0.32408848 0.07154723 0.33150250 0.15142736 0.20405294 0.02130486 0.19067968 0.11527155 0.13326794 0.33103678 -0.10784145 -0.26515698 0.24188910 -0.07900877 -0.34972835 0.36280054 0.24716581
on -0.44847429 -0.49057031 0.10537578 0.04687651 -0.27661759 0.26950878 0.15432861 0.00021418 -0.02144394 0.32303119 -0.05950076 -0.21079969 0.39414215 -0.02857110 -0.00217229 0.24285784 0.03842581 0.26586652 -0.13534562 -0.50381976 -0.05216486 0.18744133 -0.39399406 -0.02287088 -0.07601719 -0.19790681 0.10237453 -0.28756607 0.06805758 -0.48847267 -0.09718435 0.05003265 0.18964532 0.09127122 -0.11563150 0.35370636 0.12178617 0.13337767 0.24348955 -0.02819470 0.22106011 0.06486778 -0.35742089 -0.27985913 0.25167570 -0.34705949 -0.20818798 -0.23256116 -0.03777133 0.07449684 -0.40443286 0.06351183 0.42443150 0.19930887 0.35084721 0.30172321 -0.03664465 -0.20913893 0.13290517 0.15038393 0.15663315 0.11368813 0.26217759 -0.14756012 0.29383108 0.18443823 -0.28346246 0.32147586 -0.42100826 0.14358981 0.10371614 -0.46417394 0.07038072 0.05058373 -0.11625028 0.04719557 0.01673451 -0.23917577 -0.40527856 0.19705775 0.35964334 -0.13591237 -0.05767514 -0.06983344 0.48994353 0.09925061 0.09670557 0.59284544 0.20926939 0.40334272 0.41704670 -0.22139667 0.16807708 -0.14665963 -0.26481602 0.37391257 -0.44028339 -0.23599654 0.03435951 -0.08634916
ENTITY/Race_and_ethnicity_in_the_United_States_Census -3.18475699 -0.98596603 -0.17953557 1.44145000 -1.66863859 -0.83254373 -0.07039265 -1.02889967 0.47099102 -1.55614936 1.90679228 0.00215001 1.46118283 0.26575071 0.52012336 1.18995893 0.62115020 -2.84153652 -1.04302490 -1.18296516 -0.65464973 2.58348989 -0.28278881 -0.25755280 -2.61614966 -0.84324098 1.82328439 -0.97827184 2.48544717 -1.44073761 -0.51279759 -0.65054411 -1.73655379 -1.42686760 -0.28339148 0.59776056 -0.12763563 0.16268067 0.21098313 -0.22921264 -1.44899881 -1.24081874 0.71148783 -2.70230770 1.79103327 0.26709965 -1.89291394 -0.98041105 -1.92228878 -0.53114212 1.90947795 -0.68630522 1.34246147 -2.08319616 -1.06790376 2.12101865 0.69991249 1.44337678 -0.70404577 -0.57151955 1.71091580 -0.13164252 -2.41671729 -0.31340435 2.04916525 -0.64081800 -1.00074148 -0.15124255 -0.65835446 -0.59040403 -2.50705266 1.34010792 -2.16275072 -2.92144608 1.36034644 0.69975942 -0.91633856 2.03800178 0.89009070 0.93715388 1.93745983 1.54949236 -0.13646735 -0.97058088 -0.89953095 -1.54326010 -1.03396881 -1.10290051 2.65119696 -1.80478919 1.16086602 0.50891978 -1.58466017 1.53322482 -0.57609421 0.69193822 -0.16323797 1.72940445 2.33920145 0.73180979
ENTITY/United_States -0.56556386 -0.31760383 0.12274855 0.46512395 -0.47249430 -0.20295481 0.22458962 0.54547554 -0.31316411 -0.02731843 0.16370529 0.42265883 0.22989365 0.47632682 0.13406533 -0.11941126 0.34785733 -0.21749790 -0.39165986 -0.36352971 0.33576187 0.58212233 -0.18396229 0.11285891 0.31547067 -0.20054306 0.58152270 -0.56802022 0.31636411 -0.12514903 -0.22707190 -0.35887700 0.17327082 -0.42152038 -0.52164358 0.20447561 0.29270399 0.32271397 -0.10837134 -0.50976700 -0.49404520 0.28579235 -0.56837344 -0.01842921 0.59418958 -0.47134683 -0.14440347 -0.28769714 -0.13501957 0.18071023 -0.06761783 -0.10478453 0.20487303 0.06810620 0.21605195 0.17678905 0.39188570 -0.12072425 0.01778887 0.06748750 0.26873511 0.38853073 0.02132070 -0.45105168 0.60246062 0.29648238 -0.18989016 -0.21940823 -0.00627337 -0.02111819 -0.14624311 -0.90153664 0.24124376 -0.16941835 -0.08041250 0.10960908 0.05646533 -0.29694369 -0.37916949 -0.06567274 0.52246886 0.43712935 -0.28081480 0.09518144 0.30289707 0.11365206 0.41489798 0.42942744 0.01021100 0.27442861 -0.70447701 0.54059345 -0.28946629 0.25474775 -0.08353751 0.51262385 -0.26561558 -0.10883012 -0.07723485 -0.14725368
ENTITY/Association_football -0.86925644 0.42591023 -0.57955474 0.11207619 -0.58825094 -0.26660565 0.23890881 -0.15095560 -0.92641050 0.38674924 1.07833493 -0.37155494 0.87682688 -0.20863485 -1.10051191 0.08669047 0.06880899 0.17507301 0.40720585 -0.14361645 -0.29897088 1.04616368 0.50235790 -0.33415267 -0.97136945 -0.80255026 0.46948215 0.12016346 0.60312456 -0.54039419 -0.38574877 -0.03631212 -0.24633387 0.21148804 -0.32954857 -0.39120889 -0.39050269 -0.22267964 -0.31840175 -0.84743863 0.29363734 0.20199655 0.30468905 0.13316692 0.40436825 -0.12451911 0.00066015 0.03842955 0.49240842 0.85475826 0.39851189 -0.45463878 -0.12192574 0.47266322 -0.20581825 -0.07399488 0.28370157 0.88598078 0.74797022 0.00241768 0.16216461 -0.86464393 0.01020099 0.43965271 0.56670105 0.74896610 -0.79654479 -0.43040386 0.81006742 0.50392699 -0.05781331 -0.95886302 -0.30283734 -0.12493310 -0.58054990 0.30950344 0.30196148 -0.33582473 0.01402416 0.36660856 -0.14489484 -0.59793019 -0.03170256 -0.23749700 0.61497629 0.24945869 0.21636337 0.07660651 -0.75367546 0.84818649 0.10048383 -0.18768577 -0.64802015 -0.03971376 -0.41154149 0.74588567 0.16092105 -0.41387191 0.36251888 0.10453817
ENTITY/World_War_II -0.80551553 0.25709078 -0.05570365 -0.48030129 -0.53495866 -0.01905080 0.41114932 -0.34890491 -0.25630707 0.00179516 0.36293572 0.50209051 0.02594228 0.39860845 -0.54380661 -0.01562435 0.42535660 -0.36051297 -0.58813006 -0.70462006 0.20569468 0.26270053 0.29048634 -0.49459851 0.38353342 -0.35973519 0.11647922 -0.68385839 0.11261706 -0.56325012 0.51635003 0.03421612 -0.39847723 -0.28756353 -0.23860808 -0.35570806 0.30871618 -0.32439506 -0.36657035 -0.30243909 -0.44690454 0.58655149 -0.24188246 -0.00905424 -0.35848027 -0.72675085 0.03028405 0.10902562 -0.08665899 0.07248857 0.53153437 -0.02743645 0.29239228 -0.02937450 -0.11041329 -0.13438110 0.48900306 0.15276583 -0.13042678 -0.19470812 -0.30377603 0.08935944 0.45270023 -0.15897202 -0.30699578 -0.13513495 -0.26272675 -0.07272507 -0.11942760 -0.18548222 0.74115866 -0.47757429 -0.51326579 -0.29519528 0.44412446 0.52771521 0.11592361 0.27210006 -0.70112783 -0.44886386 -0.12701863 0.10838347 -0.14830655 -0.09048841 0.12538880 0.08437727 -0.10862730 0.73044425 -0.30444098 -0.13883188 0.34366903 -0.25540563 -0.51329058 -0.14754361 0.07706026 0.15468334 -0.05640740 0.27838767 0.53525293 0.83849013
ENTITY/France -0.60161412 0.32779104 -0.13981706 0.22869328 -0.60721368 0.10132715 0.28744838 0.03720633 -0.32835594 -0.42060557 0.41754824 0.28634298 0.34563500 0.37841842 -0.25923851 -0.41238809 0.37806594 0.01184118 -0.63425744 -0.02353848 0.01885895 0.31218594 -0.22310740 -0.12692550 0.10947279 -1.09288454 0.19583206 -0.84794009 -0.25850114 -0.69644260 -0.18252981 0.15691079 0.34509429 -0.52379346 -0.06016201 0.04921161 -0.16047461 0.27390906 -0.17179143 -0.20385413 -0.78894913 0.67405063 0.07299729 0.30331576 0.09518779 -0.00036105 -0.22995545 -0.14116704 0.37163642 0.31185859 0.07012314 0.07787457 -0.03043540 0.04045653 0.24849792 -0.34654805 0.62254000 -0.17056018 -0.31337550 -0.00967841 -0.57503140 0.66916335 0.19866058 -0.46787608 0.55720723 0.51688248 0.15225178 0.14847396 0.52096593 0.36316323 0.40720740 -1.04016852 0.29576272 0.44033173 -0.62763184 -0.34328139 0.03792212 -0.37487748 -0.16448475 0.09542761 0.86301392 -0.06919210 -0.52117014 -0.03712836 0.28304875 -0.16188158 0.20547216 0.26113388 0.15930851 -0.09023214 -0.01129069 0.17396143 -0.20825405 -0.28575352 -0.01707401 0.45780644 -0.85323721 -0.02312480 -0.38818726 0.22606187
ENTITY/Germany -0.71941304 0.13419965 -0.57167101 0.27462560 -0.67720670 0.23280638 0.33814377 0.26425099 -0.05973145 -0.68801540 0.57429141 0.17601116 -0.01856838 0.40339568 -0.04692335 -0.57494062 0.43957749 -0.06401430 -0.63122457 -0.50036234 0.31686178 0.09949774 -0.00551230 -0.09808464 0.18932648 -0.55422586 0.23364496 -0.50209635 -0.29960194 -0.19924563 -0.16073216 0.08335161 0.86563522 -0.65650523 -0.20963436 0.09940375 -0.63224381 0.02597630 -0.37951365 -1.02617502 -0.38062504 0.39460221 -0.35325274 0.24129575 0.38794768 -0.23379715 -0.34595329 0.13258441 0.13001066 0.51454622 -0.47673014 0.10223486 0.21151640 0.26187652 0.14828323 0.16535966 0.40246338 0.02392832 -0.07885266 -0.04684094 0.21401903 0.39064997 0.28599775 -0.11712502 0.20533721 0.25022161 -0.01825670 -0.08580107 -0.15146901 0.51858187 0.35945773 -0.89807379 0.08931348 0.27202931 -0.25968936 -0.32922971 0.10249322 -0.21091200 -0.45403314 -0.34783497 0.27836531 0.17546149 -0.27008909 -0.16610011 -0.12917210 -0.18519668 0.56583208 0.71930039 -0.05447137 -0.00393059 -0.28240442 -0.19436000 -0.89084959 -0.24371959 -0.15737750 0.39161938 -0.36305439 -0.32406947 0.25413078 0.31567976
ENTITY/India -0.87138498 0.20275594 -0.01254091 0.21711825 -0.29126993 0.10266642 -0.03347296 1.03428888 -0.60054034 -0.25628769 0.58733332 0.56693023 0.02903062 -0.07000338 0.19805099 -0.04749774 0.20157492 -0.17449343 -0.75701898 0.04815160 0.27937582 0.62060642 0.14957038 0.32181883 -0.09348147 -0.21486408 0.29871562 -0.39534372 -0.28129059 -0.09771662 -0.27018696 -0.13598284 0.40129563 0.01662242 -0.38645339 0.47343928 -0.41070023 0.12606579 0.18980607 -0.41342515 -0.26863819 0.03828461 -0.21158209 -0.24397743 -0.06084494 -0.47233775 0.00385607 0.23006515 -0.03285911 0.20556006 -0.38427886 0.10502930 -0.06937523 0.32220799 0.34980649 -0.22750783 0.13799353 -0.01869433 -0.30940044 0.25779292 -0.25191075 -0.11728217 0.24848101 -0.37355816 -0.15196399 0.30755824 0.05605331 -0.18613283 0.13405989 0.44375578 -0.39174390 -0.79986632 -0.52937031 0.04422951 0.40883088 -0.37375087 -0.51206923 0.50157249 -0.23512039 -0.12211914 0.33876354 -0.08608406 -0.43053600 -0.14674240 0.54355949 -0.55465287 0.06735688 0.35067594 0.06388314 -0.13673690 -0.07953014 -0.47829336 -0.28890541 -0.28093660 -0.53682834 1.03477633 -0.31176829 -0.80347461 -0.16471495 0.07469440
ENTITY/New_York_City -0.16861866 -0.85035807 -0.13713694 0.16885780 -0.55543530 0.01532344 0.07848671 -0.21262069 -0.02509396 -0.01959685 -0.29759142 0.15292443 -0.06342969 0.17604065 -0.02171356 -0.11819366 0.05803753 -0.20841867 -0.06855068 -0.24201122 0.76048219 0.30360645 0.39390433 0.09039468 -0.21046220 -0.12289797 0.17421831 -0.43672165 0.48126677 -0.34511477 0.25221363 -0.21296781 -0.01431839 0.08788426 -0.51255232 0.25820941 0.76623011 0.30994773 -0.21531600 -0.40096942 0.03928358 0.18653047 -0.37975699 0.15300721 -0.21024495 -0.47239083 -0.19836868 -0.30621392 0.09921798 0.25003684 0.39910603 0.25935382 0.78553313 -0.07806118 0.36994311 0.64238524 0.38661391 -0.05238649 0.01177149 0.11770219 -0.38278624 0.38414210 -0.21099721 -0.61987573 0.34781498 0.12616594 -0.06734023 -0.06011829 0.29263264 -0.01293107 -0.30873156 -0.65272468 0.30903628 0.06505988 -0.19456668 -0.19301532 -0.00042430 -0.00892297 -0.49411887 -0.32152581 0.85728091 0.05077350 -0.18427542 0.18575129 0.23302940 0.46873310 0.08193491 0.60816318 -0.08314098 -0.18975063 -0.26242155 -0.28277323 -0.26816335 0.08127894 -0.20486055 0.59149331 -0.15296169 -0.36808807 0.40579256 0.18366821
ENTITY/United_Kingdom -0.27859974 0.14362909 0.08851051 -0.14022380 -0.38848099 -0.39248070 0.26467159 0.19520624 -0.29884946 -0.25483483 0.46007496 0.35144147 0.36681044 0.04777754 -0.05314238 -0.00722580 -0.11525016 0.19287430 -0.35344449 -0.43982190 0.08321819 0.51334083 -0.12665534 0.35793284 0.08297337 -0.37699813 0.00118939 -0.82410711 -0.06939184 -0.34490177 -0.05099898 -0.06494646 0.16440491 -0.71479821 -0.29370260 0.18889564 -0.01876041 0.14275980 0.14920327 -0.65010500 -0.53618312 0.40516090 -0.15719105 0.41800955 0.19150254 -0.32212695 -0.21996152 -0.14017904 0.24318226 0.55704087 -0.10975894 0.14862166 -0.04137358 0.77797627 0.46087417 0.16393808 0.30996346 0.03097872 0.04539866 0.03533251 -0.13933437 0.60480601 0.02023091 -0.58249795 0.27315027 0.21609174 -0.21366574 0.10778290 -0.35848746 0.34010053 -0.02087312 -1.04610837 -0.14742143 0.21040963 -0.00351419 -0.06260894 -0.11410172 0.07836919 -0.73837727 0.14727949 0.31183267 0.19885784 -0.44966096 0.07385509 0.34714019 -0.15806587 0.06945605 0.50749266 0.03969217 -0.18817656 -0.44105133 0.13731752 -0.29486254 0.06821023 -0.02988751 0.31949058 -0.13888678 0.08583242 0.16986284 0.29776239
ENTITY/Canada -0.33455071 -0.26023069 0.07020413 0.32102740 -0.36170828 -0.09810428 0.36206973 0.50937521 -0.33718386 -0.04330427 0.40059274 0.59215945 0.79233861 0.14143279 0.06522653 -0.35611302 0.02803496 0.12330984 -0.35464665 -0.02776299 0.11268670 0.66085160 -0.08312946 -0.05438657 0.33873379 -0.74216449 0.40880525 -0.53720784 -0.03816825 -0.05575569 0.04743294 0.23581713 0.19850598 -0.79146242 -0.42462501 0.34458992 0.33131880 0.21317075 -0.11672641 -0.38897580 -0.13555144 0.73163736 -0.41853246 -0.26807848 -0.02924939 0.12111391 -0.44238281 -0.01083090 0.14031219 0.28915176 0.44037932 -0.19746996 0.09470771 0.36442858 0.06807737 0.34898663 0.35984039 -0.20160413 -0.02397721 -0.19141909 -0.17147979 0.55243045 0.17272498 -0.85776085 -0.20724533 -0.29424784 -0.14421034 0.26005697 0.00178569 0.06703170 0.44490391 -0.74244303 -0.04136167 0.33382621 0.03428168 -0.29709381 -0.33260846 -0.05162182 -0.24664932 0.20514287 0.99870950 -0.04176958 -0.56165636 -0.43314055 0.08470151 0.02512806 0.09346513 0.47686788 -0.07679226 -0.30519772 -0.40687516 -0.27916160 -0.22506656 0.00333779 -0.30972725 0.46020272 0.20052154 0.18366130 -0.01980211 -0.34010234
